net 
{ 
}
node Age 
{
  states = ( "Adolescent" "Adult" "Senior" );
}
node GoodStudent 
{
  states = ( "False" "True" );
}
node SocioEcon 
{
  states = ( "Middle" "Prole" "UpperMiddle" "Wealthy" );
}
node RiskAversion 
{
  states = ( "Adventurous" "Cautious" "Normal" "Psychopath" );
}
node Accident 
{
  states = ( "Mild" "Moderate" "None" "Severe" );
}
node DrivQuality 
{
  states = ( "Excellent" "Normal" "Poor" );
}
potential ( Age ) 
{
  data = ( 0.2031065 0.5969368 0.1999567 );
}
potential ( GoodStudent | Age ) 
{
  data = ((0.7821039 0.2178961)(9.999860e-01 1.395946e-05)(9.999583e-01 4.167361e-05)) ;
}
potential ( SocioEcon | Age GoodStudent ) 
{
  data = (((0.412959660 0.462060012 0.119616535 0.005363794)(0.36382037 0.17402561 0.43612314 0.02603088))((0.402544147 0.405810707 0.183182104 0.008463042)(0.25 0.25 0.25 0.25))((0.205553240 0.494363409 0.290821004 0.009262346)(0.25 0.25 0.25 0.25))) ;
}
potential ( RiskAversion | Age SocioEcon ) 
{
  data = (((0.38616197 0.09731501 0.49509154 0.02143149)(0.58382995 0.08755459 0.30825841 0.02035705)(0.49214076 0.09270641 0.39815621 0.01699663)(0.64916840 0.15020790 0.17515593 0.02546778))((0.18102492 0.20453678 0.60278206 0.01165623)(0.29494247 0.19380902 0.49700298 0.01424554)(0.29172223 0.18975995 0.50524862 0.01326919)(0.25741962 0.28709810 0.44538335 0.01009893))((0.041383680 0.608236189 0.341839838 0.008540294)(0.10015806 0.48506849 0.40060063 0.01417281)(0.077398438 0.502991331 0.411854267 0.007755965)(0.1084269663 0.4589887640 0.4320224719 0.0005617978))) ;
}
potential ( Accident | DrivQuality ) 
{
  data = ((0.009240850 0.003818346 0.983664709 0.003276096)(0.02226322 0.01203544 0.95928555 0.00641578)(0.2031039 0.2000022 0.2930527 0.3038411)) ;
}
potential ( DrivQuality | Age RiskAversion ) 
{
  data = (((0.1832471 0.1761803 0.6405726)(0.1667034 0.3518478 0.4814488)(0.04443188 0.43491150 0.52065663)(0.21962775 0.07343486 0.70693739))((0.2882227 0.2413121 0.4704653)(0.2295049 0.4704094 0.3000857)(0.09636247 0.60712272 0.29651481)(0.2516568 0.1355902 0.6127530))((0.2515546 0.1871539 0.5612914)(0.3750590 0.4919878 0.1329533)(0.1581726 0.5459071 0.2959204)(0.2501575 0.1140517 0.6357908))) ;
}
